Complex W0[1] = { { 1.000000000000000000,0.000000000000000000 } };

Complex W1[1] = {{1.000000000000000000,0.000000000000000000}};

Complex W2[2] = {{1.000000000000000000,0.000000000000000000},{0.000000000000000061,-1.000000000000000000}};

Complex W3[4] = {{1.000000000000000000,0.000000000000000000},{0.707106781186547570,-0.707106781186547460},{0.000000000000000061,-1.000000000000000000},{-0.707106781186547460,-0.707106781186547570}};

Complex W4[8] = {{1.000000000000000000,0.000000000000000000},{0.923879532511286740,-0.382683432365089780},{0.707106781186547570,-0.707106781186547460},{0.382683432365089840,-0.923879532511286740},{0.000000000000000061,-1.000000000000000000},{-0.382683432365089730,-0.923879532511286740},{-0.707106781186547460,-0.707106781186547570},{-0.923879532511286740,-0.382683432365089890}};

Complex W5[16] = {{1.000000000000000000,0.000000000000000000},{0.980785280403230430,-0.195090322016128250},{0.923879532511286740,-0.382683432365089780},{0.831469612302545240,-0.555570233019602180},{0.707106781186547570,-0.707106781186547460},{0.555570233019602290,-0.831469612302545240},{0.382683432365089840,-0.923879532511286740},{0.195090322016128330,-0.980785280403230430},{0.000000000000000061,-1.000000000000000000},{-0.195090322016128190,-0.980785280403230430},{-0.382683432365089730,-0.923879532511286740},{-0.555570233019601960,-0.831469612302545350},{-0.707106781186547460,-0.707106781186547570},{-0.831469612302545350,-0.555570233019602180},{-0.923879532511286740,-0.382683432365089890},{-0.980785280403230430,-0.195090322016128610}};

Complex W6[32] = {{1.000000000000000000,0.000000000000000000},{0.995184726672196930,-0.098017140329560604},{0.980785280403230430,-0.195090322016128250},{0.956940335732208820,-0.290284677254462330},{0.923879532511286740,-0.382683432365089780},{0.881921264348355050,-0.471396736825997640},{0.831469612302545240,-0.555570233019602180},{0.773010453362736990,-0.634393284163645490},{0.707106781186547570,-0.707106781186547460},{0.634393284163645490,-0.773010453362736880},{0.555570233019602290,-0.831469612302545240},{0.471396736825997810,-0.881921264348354940},{0.382683432365089840,-0.923879532511286740},{0.290284677254462330,-0.956940335732208940},{0.195090322016128330,-0.980785280403230430},{0.098017140329560770,-0.995184726672196820},{0.000000000000000061,-1.000000000000000000},{-0.098017140329560645,-0.995184726672196930},{-0.195090322016128190,-0.980785280403230430},{-0.290284677254462160,-0.956940335732208940},{-0.382683432365089730,-0.923879532511286740},{-0.471396736825997700,-0.881921264348355050},{-0.555570233019601960,-0.831469612302545350},{-0.634393284163645380,-0.773010453362737100},{-0.707106781186547460,-0.707106781186547570},{-0.773010453362736990,-0.634393284163645490},{-0.831469612302545350,-0.555570233019602180},{-0.881921264348354940,-0.471396736825997860},{-0.923879532511286740,-0.382683432365089890},{-0.956940335732208820,-0.290284677254462390},{-0.980785280403230430,-0.195090322016128610},{-0.995184726672196820,-0.098017140329560826}};

Complex W7[64] = {{1.000000000000000000,0.000000000000000000},{0.998795456205172410,-0.049067674327418015},{0.995184726672196930,-0.098017140329560604},{0.989176509964781010,-0.146730474455361750},{0.980785280403230430,-0.195090322016128250},{0.970031253194543970,-0.242980179903263870},{0.956940335732208820,-0.290284677254462330},{0.941544065183020810,-0.336889853392220050},{0.923879532511286740,-0.382683432365089780},{0.903989293123443340,-0.427555093430282080},{0.881921264348355050,-0.471396736825997640},{0.857728610000272120,-0.514102744193221660},{0.831469612302545240,-0.555570233019602180},{0.803207531480644940,-0.595699304492433360},{0.773010453362736990,-0.634393284163645490},{0.740951125354959220,-0.671558954847018330},{0.707106781186547570,-0.707106781186547460},{0.671558954847018440,-0.740951125354959110},{0.634393284163645490,-0.773010453362736880},{0.595699304492433470,-0.803207531480644830},{0.555570233019602290,-0.831469612302545240},{0.514102744193221660,-0.857728610000272120},{0.471396736825997810,-0.881921264348354940},{0.427555093430282200,-0.903989293123443340},{0.382683432365089840,-0.923879532511286740},{0.336889853392220050,-0.941544065183020810},{0.290284677254462330,-0.956940335732208940},{0.242980179903263980,-0.970031253194543970},{0.195090322016128330,-0.980785280403230430},{0.146730474455361750,-0.989176509964781010},{0.098017140329560770,-0.995184726672196820},{0.049067674327418126,-0.998795456205172410},{0.000000000000000061,-1.000000000000000000},{-0.049067674327418008,-0.998795456205172410},{-0.098017140329560645,-0.995184726672196930},{-0.146730474455361640,-0.989176509964781010},{-0.195090322016128190,-0.980785280403230430},{-0.242980179903263870,-0.970031253194543970},{-0.290284677254462160,-0.956940335732208940},{-0.336889853392219940,-0.941544065183020810},{-0.382683432365089730,-0.923879532511286740},{-0.427555093430281860,-0.903989293123443450},{-0.471396736825997700,-0.881921264348355050},{-0.514102744193221550,-0.857728610000272120},{-0.555570233019601960,-0.831469612302545350},{-0.595699304492433360,-0.803207531480644940},{-0.634393284163645380,-0.773010453362737100},{-0.671558954847018440,-0.740951125354958990},{-0.707106781186547460,-0.707106781186547570},{-0.740951125354958880,-0.671558954847018550},{-0.773010453362736990,-0.634393284163645490},{-0.803207531480644830,-0.595699304492433470},{-0.831469612302545350,-0.555570233019602180},{-0.857728610000272010,-0.514102744193221770},{-0.881921264348354940,-0.471396736825997860},{-0.903989293123443340,-0.427555093430282030},{-0.923879532511286740,-0.382683432365089890},{-0.941544065183020700,-0.336889853392220330},{-0.956940335732208820,-0.290284677254462390},{-0.970031253194543970,-0.242980179903264070},{-0.980785280403230430,-0.195090322016128610},{-0.989176509964781010,-0.146730474455361800},{-0.995184726672196820,-0.098017140329560826},{-0.998795456205172410,-0.049067674327417966}};

Complex W8[128] = {{1.000000000000000000,0.000000000000000000},{0.999698818696204250,-0.024541228522912288},{0.998795456205172410,-0.049067674327418015},{0.997290456678690210,-0.073564563599667426},{0.995184726672196930,-0.098017140329560604},{0.992479534598709970,-0.122410675199216200},{0.989176509964781010,-0.146730474455361750},{0.985277642388941220,-0.170961888760301220},{0.980785280403230430,-0.195090322016128250},{0.975702130038528570,-0.219101240156869800},{0.970031253194543970,-0.242980179903263870},{0.963776065795439840,-0.266712757474898370},{0.956940335732208820,-0.290284677254462330},{0.949528180593036670,-0.313681740398891520},{0.941544065183020810,-0.336889853392220050},{0.932992798834738960,-0.359895036534988110},{0.923879532511286740,-0.382683432365089780},{0.914209755703530690,-0.405241314004989860},{0.903989293123443340,-0.427555093430282080},{0.893224301195515320,-0.449611329654606540},{0.881921264348355050,-0.471396736825997640},{0.870086991108711460,-0.492898192229784040},{0.857728610000272120,-0.514102744193221660},{0.844853565249707120,-0.534997619887097150},{0.831469612302545240,-0.555570233019602180},{0.817584813151583710,-0.575808191417845340},{0.803207531480644940,-0.595699304492433360},{0.788346427626606340,-0.615231590580626820},{0.773010453362736990,-0.634393284163645490},{0.757208846506484570,-0.653172842953776760},{0.740951125354959220,-0.671558954847018330},{0.724247082951467000,-0.689540544737066830},{0.707106781186547570,-0.707106781186547460},{0.689540544737066940,-0.724247082951466890},{0.671558954847018440,-0.740951125354959110},{0.653172842953776870,-0.757208846506484570},{0.634393284163645490,-0.773010453362736880},{0.615231590580626820,-0.788346427626606230},{0.595699304492433470,-0.803207531480644830},{0.575808191417845340,-0.817584813151583710},{0.555570233019602290,-0.831469612302545240},{0.534997619887097260,-0.844853565249707010},{0.514102744193221660,-0.857728610000272120},{0.492898192229784090,-0.870086991108711350},{0.471396736825997810,-0.881921264348354940},{0.449611329654606600,-0.893224301195515320},{0.427555093430282200,-0.903989293123443340},{0.405241314004989860,-0.914209755703530690},{0.382683432365089840,-0.923879532511286740},{0.359895036534988280,-0.932992798834738850},{0.336889853392220050,-0.941544065183020810},{0.313681740398891570,-0.949528180593036670},{0.290284677254462330,-0.956940335732208940},{0.266712757474898420,-0.963776065795439840},{0.242980179903263980,-0.970031253194543970},{0.219101240156869770,-0.975702130038528570},{0.195090322016128330,-0.980785280403230430},{0.170961888760301360,-0.985277642388941220},{0.146730474455361750,-0.989176509964781010},{0.122410675199216280,-0.992479534598709970},{0.098017140329560770,-0.995184726672196820},{0.073564563599667454,-0.997290456678690210},{0.049067674327418126,-0.998795456205172410},{0.024541228522912264,-0.999698818696204250},{0.000000000000000061,-1.000000000000000000},{-0.024541228522912142,-0.999698818696204250},{-0.049067674327418008,-0.998795456205172410},{-0.073564563599667329,-0.997290456678690210},{-0.098017140329560645,-0.995184726672196930},{-0.122410675199216150,-0.992479534598709970},{-0.146730474455361640,-0.989176509964781010},{-0.170961888760301240,-0.985277642388941220},{-0.195090322016128190,-0.980785280403230430},{-0.219101240156869660,-0.975702130038528570},{-0.242980179903263870,-0.970031253194543970},{-0.266712757474898310,-0.963776065795439840},{-0.290284677254462160,-0.956940335732208940},{-0.313681740398891410,-0.949528180593036670},{-0.336889853392219940,-0.941544065183020810},{-0.359895036534988170,-0.932992798834738850},{-0.382683432365089730,-0.923879532511286740},{-0.405241314004989750,-0.914209755703530690},{-0.427555093430281860,-0.903989293123443450},{-0.449611329654606710,-0.893224301195515210},{-0.471396736825997700,-0.881921264348355050},{-0.492898192229783980,-0.870086991108711460},{-0.514102744193221550,-0.857728610000272120},{-0.534997619887097040,-0.844853565249707230},{-0.555570233019601960,-0.831469612302545350},{-0.575808191417845340,-0.817584813151583710},{-0.595699304492433360,-0.803207531480644940},{-0.615231590580626710,-0.788346427626606340},{-0.634393284163645380,-0.773010453362737100},{-0.653172842953776530,-0.757208846506484680},{-0.671558954847018440,-0.740951125354958990},{-0.689540544737066940,-0.724247082951466890},{-0.707106781186547460,-0.707106781186547570},{-0.724247082951466780,-0.689540544737067050},{-0.740951125354958880,-0.671558954847018550},{-0.757208846506484680,-0.653172842953776640},{-0.773010453362736990,-0.634393284163645490},{-0.788346427626606230,-0.615231590580626930},{-0.803207531480644830,-0.595699304492433470},{-0.817584813151583600,-0.575808191417845450},{-0.831469612302545350,-0.555570233019602180},{-0.844853565249707120,-0.534997619887097150},{-0.857728610000272010,-0.514102744193221770},{-0.870086991108711350,-0.492898192229784150},{-0.881921264348354940,-0.471396736825997860},{-0.893224301195515210,-0.449611329654606870},{-0.903989293123443340,-0.427555093430282030},{-0.914209755703530690,-0.405241314004989920},{-0.923879532511286740,-0.382683432365089890},{-0.932992798834738850,-0.359895036534988330},{-0.941544065183020700,-0.336889853392220330},{-0.949528180593036670,-0.313681740398891410},{-0.956940335732208820,-0.290284677254462390},{-0.963776065795439840,-0.266712757474898480},{-0.970031253194543970,-0.242980179903264070},{-0.975702130038528460,-0.219101240156870050},{-0.980785280403230430,-0.195090322016128610},{-0.985277642388941220,-0.170961888760301220},{-0.989176509964781010,-0.146730474455361800},{-0.992479534598709970,-0.122410675199216350},{-0.995184726672196820,-0.098017140329560826},{-0.997290456678690210,-0.073564563599667732},{-0.998795456205172410,-0.049067674327417966},{-0.999698818696204250,-0.024541228522912326}};

Complex W9[256] = {{1.000000000000000000,0.000000000000000000},{0.999924701839144500,-0.012271538285719925},{0.999698818696204250,-0.024541228522912288},{0.999322384588349540,-0.036807222941358832},{0.998795456205172410,-0.049067674327418015},{0.998118112900149180,-0.061320736302208578},{0.997290456678690210,-0.073564563599667426},{0.996312612182778000,-0.085797312344439894},{0.995184726672196930,-0.098017140329560604},{0.993906970002356060,-0.110222207293883060},{0.992479534598709970,-0.122410675199216200},{0.990902635427780010,-0.134580708507126170},{0.989176509964781010,-0.146730474455361750},{0.987301418157858430,-0.158858143333861450},{0.985277642388941220,-0.170961888760301220},{0.983105487431216290,-0.183039887955140950},{0.980785280403230430,-0.195090322016128250},{0.978317370719627650,-0.207111376192218560},{0.975702130038528570,-0.219101240156869800},{0.972939952205560180,-0.231058108280671110},{0.970031253194543970,-0.242980179903263870},{0.966976471044852070,-0.254865659604514570},{0.963776065795439840,-0.266712757474898370},{0.960430519415565790,-0.278519689385053060},{0.956940335732208820,-0.290284677254462330},{0.953306040354193860,-0.302005949319228080},{0.949528180593036670,-0.313681740398891520},{0.945607325380521280,-0.325310292162262930},{0.941544065183020810,-0.336889853392220050},{0.937339011912574960,-0.348418680249434560},{0.932992798834738960,-0.359895036534988110},{0.928506080473215590,-0.371317193951837490},{0.923879532511286740,-0.382683432365089780},{0.919113851690057770,-0.393992040061048100},{0.914209755703530690,-0.405241314004989860},{0.909167983090522380,-0.416429560097637150},{0.903989293123443340,-0.427555093430282080},{0.898674465693953820,-0.438616238538527660},{0.893224301195515320,-0.449611329654606540},{0.887639620402853930,-0.460538710958240010},{0.881921264348355050,-0.471396736825997640},{0.876070094195406600,-0.482183772079122720},{0.870086991108711460,-0.492898192229784040},{0.863972856121586700,-0.503538383725717580},{0.857728610000272120,-0.514102744193221660},{0.851355193105265200,-0.524589682678468950},{0.844853565249707120,-0.534997619887097150},{0.838224705554838080,-0.545324988422046460},{0.831469612302545240,-0.555570233019602180},{0.824589302785025290,-0.565731810783613120},{0.817584813151583710,-0.575808191417845340},{0.810457198252594770,-0.585797857456438860},{0.803207531480644940,-0.595699304492433360},{0.795836904608883570,-0.605511041404325550},{0.788346427626606340,-0.615231590580626820},{0.780737228572094490,-0.624859488142386340},{0.773010453362736990,-0.634393284163645490},{0.765167265622458960,-0.643831542889791390},{0.757208846506484570,-0.653172842953776760},{0.749136394523459370,-0.662415777590171780},{0.740951125354959220,-0.671558954847018330},{0.732654271672412820,-0.680600997795453020},{0.724247082951467000,-0.689540544737066830},{0.715730825283818590,-0.698376249408972920},{0.707106781186547570,-0.707106781186547460},{0.698376249408972920,-0.715730825283818590},{0.689540544737066940,-0.724247082951466890},{0.680600997795453130,-0.732654271672412820},{0.671558954847018440,-0.740951125354959110},{0.662415777590171780,-0.749136394523459260},{0.653172842953776870,-0.757208846506484570},{0.643831542889791500,-0.765167265622458960},{0.634393284163645490,-0.773010453362736880},{0.624859488142386450,-0.780737228572094380},{0.615231590580626820,-0.788346427626606230},{0.605511041404325550,-0.795836904608883570},{0.595699304492433470,-0.803207531480644830},{0.585797857456438860,-0.810457198252594770},{0.575808191417845340,-0.817584813151583710},{0.565731810783613230,-0.824589302785025290},{0.555570233019602290,-0.831469612302545240},{0.545324988422046460,-0.838224705554837970},{0.534997619887097260,-0.844853565249707010},{0.524589682678468840,-0.851355193105265200},{0.514102744193221660,-0.857728610000272120},{0.503538383725717580,-0.863972856121586700},{0.492898192229784090,-0.870086991108711350},{0.482183772079122830,-0.876070094195406600},{0.471396736825997810,-0.881921264348354940},{0.460538710958240010,-0.887639620402853930},{0.449611329654606600,-0.893224301195515320},{0.438616238538527710,-0.898674465693953820},{0.427555093430282200,-0.903989293123443340},{0.416429560097637320,-0.909167983090522380},{0.405241314004989860,-0.914209755703530690},{0.393992040061048100,-0.919113851690057770},{0.382683432365089840,-0.923879532511286740},{0.371317193951837600,-0.928506080473215590},{0.359895036534988280,-0.932992798834738850},{0.348418680249434510,-0.937339011912574960},{0.336889853392220050,-0.941544065183020810},{0.325310292162262980,-0.945607325380521280},{0.313681740398891570,-0.949528180593036670},{0.302005949319228200,-0.953306040354193750},{0.290284677254462330,-0.956940335732208940},{0.278519689385053060,-0.960430519415565790},{0.266712757474898420,-0.963776065795439840},{0.254865659604514630,-0.966976471044852070},{0.242980179903263980,-0.970031253194543970},{0.231058108280671280,-0.972939952205560070},{0.219101240156869770,-0.975702130038528570},{0.207111376192218560,-0.978317370719627650},{0.195090322016128330,-0.980785280403230430},{0.183039887955141060,-0.983105487431216290},{0.170961888760301360,-0.985277642388941220},{0.158858143333861390,-0.987301418157858430},{0.146730474455361750,-0.989176509964781010},{0.134580708507126220,-0.990902635427780010},{0.122410675199216280,-0.992479534598709970},{0.110222207293883180,-0.993906970002356060},{0.098017140329560770,-0.995184726672196820},{0.085797312344439880,-0.996312612182778000},{0.073564563599667454,-0.997290456678690210},{0.061320736302208648,-0.998118112900149180},{0.049067674327418126,-0.998795456205172410},{0.036807222941358991,-0.999322384588349540},{0.024541228522912264,-0.999698818696204250},{0.012271538285719944,-0.999924701839144500},{0.000000000000000061,-1.000000000000000000},{-0.012271538285719823,-0.999924701839144500},{-0.024541228522912142,-0.999698818696204250},{-0.036807222941358866,-0.999322384588349540},{-0.049067674327418008,-0.998795456205172410},{-0.061320736302208530,-0.998118112900149180},{-0.073564563599667329,-0.997290456678690210},{-0.085797312344439755,-0.996312612182778000},{-0.098017140329560645,-0.995184726672196930},{-0.110222207293883060,-0.993906970002356060},{-0.122410675199216150,-0.992479534598709970},{-0.134580708507126110,-0.990902635427780010},{-0.146730474455361640,-0.989176509964781010},{-0.158858143333861280,-0.987301418157858430},{-0.170961888760301240,-0.985277642388941220},{-0.183039887955140920,-0.983105487431216290},{-0.195090322016128190,-0.980785280403230430},{-0.207111376192218450,-0.978317370719627650},{-0.219101240156869660,-0.975702130038528570},{-0.231058108280671140,-0.972939952205560180},{-0.242980179903263870,-0.970031253194543970},{-0.254865659604514520,-0.966976471044852070},{-0.266712757474898310,-0.963776065795439840},{-0.278519689385052950,-0.960430519415565900},{-0.290284677254462160,-0.956940335732208940},{-0.302005949319228080,-0.953306040354193860},{-0.313681740398891410,-0.949528180593036670},{-0.325310292162262870,-0.945607325380521390},{-0.336889853392219940,-0.941544065183020810},{-0.348418680249434400,-0.937339011912574960},{-0.359895036534988170,-0.932992798834738850},{-0.371317193951837490,-0.928506080473215590},{-0.382683432365089730,-0.923879532511286740},{-0.393992040061047990,-0.919113851690057770},{-0.405241314004989750,-0.914209755703530690},{-0.416429560097636990,-0.909167983090522490},{-0.427555093430281860,-0.903989293123443450},{-0.438616238538527380,-0.898674465693953930},{-0.449611329654606710,-0.893224301195515210},{-0.460538710958240120,-0.887639620402853930},{-0.471396736825997700,-0.881921264348355050},{-0.482183772079122720,-0.876070094195406600},{-0.492898192229783980,-0.870086991108711460},{-0.503538383725717460,-0.863972856121586810},{-0.514102744193221550,-0.857728610000272120},{-0.524589682678468730,-0.851355193105265200},{-0.534997619887097040,-0.844853565249707230},{-0.545324988422046240,-0.838224705554838190},{-0.555570233019601960,-0.831469612302545350},{-0.565731810783613230,-0.824589302785025180},{-0.575808191417845340,-0.817584813151583710},{-0.585797857456438860,-0.810457198252594770},{-0.595699304492433360,-0.803207531480644940},{-0.605511041404325430,-0.795836904608883570},{-0.615231590580626710,-0.788346427626606340},{-0.624859488142386230,-0.780737228572094600},{-0.634393284163645380,-0.773010453362737100},{-0.643831542889791280,-0.765167265622459070},{-0.653172842953776530,-0.757208846506484680},{-0.662415777590171890,-0.749136394523459260},{-0.671558954847018440,-0.740951125354958990},{-0.680600997795453020,-0.732654271672412820},{-0.689540544737066940,-0.724247082951466890},{-0.698376249408972800,-0.715730825283818710},{-0.707106781186547460,-0.707106781186547570},{-0.715730825283818590,-0.698376249408972920},{-0.724247082951466780,-0.689540544737067050},{-0.732654271672412700,-0.680600997795453240},{-0.740951125354958880,-0.671558954847018550},{-0.749136394523459150,-0.662415777590172010},{-0.757208846506484680,-0.653172842953776640},{-0.765167265622458960,-0.643831542889791390},{-0.773010453362736990,-0.634393284163645490},{-0.780737228572094490,-0.624859488142386340},{-0.788346427626606230,-0.615231590580626930},{-0.795836904608883460,-0.605511041404325550},{-0.803207531480644830,-0.595699304492433470},{-0.810457198252594660,-0.585797857456438980},{-0.817584813151583600,-0.575808191417845450},{-0.824589302785025070,-0.565731810783613450},{-0.831469612302545350,-0.555570233019602180},{-0.838224705554838080,-0.545324988422046350},{-0.844853565249707120,-0.534997619887097150},{-0.851355193105265200,-0.524589682678468950},{-0.857728610000272010,-0.514102744193221770},{-0.863972856121586700,-0.503538383725717690},{-0.870086991108711350,-0.492898192229784150},{-0.876070094195406490,-0.482183772079122890},{-0.881921264348354940,-0.471396736825997860},{-0.887639620402853820,-0.460538710958240230},{-0.893224301195515210,-0.449611329654606870},{-0.898674465693953930,-0.438616238538527550},{-0.903989293123443340,-0.427555093430282030},{-0.909167983090522380,-0.416429560097637150},{-0.914209755703530690,-0.405241314004989920},{-0.919113851690057770,-0.393992040061048150},{-0.923879532511286740,-0.382683432365089890},{-0.928506080473215480,-0.371317193951837710},{-0.932992798834738850,-0.359895036534988330},{-0.937339011912574850,-0.348418680249434790},{-0.941544065183020700,-0.336889853392220330},{-0.945607325380521170,-0.325310292162263260},{-0.949528180593036670,-0.313681740398891410},{-0.953306040354193860,-0.302005949319228030},{-0.956940335732208820,-0.290284677254462390},{-0.960430519415565790,-0.278519689385053170},{-0.963776065795439840,-0.266712757474898480},{-0.966976471044852070,-0.254865659604514680},{-0.970031253194543970,-0.242980179903264070},{-0.972939952205560070,-0.231058108280671330},{-0.975702130038528460,-0.219101240156870050},{-0.978317370719627540,-0.207111376192218840},{-0.980785280403230430,-0.195090322016128610},{-0.983105487431216400,-0.183039887955140900},{-0.985277642388941220,-0.170961888760301220},{-0.987301418157858320,-0.158858143333861470},{-0.989176509964781010,-0.146730474455361800},{-0.990902635427780010,-0.134580708507126280},{-0.992479534598709970,-0.122410675199216350},{-0.993906970002356060,-0.110222207293883240},{-0.995184726672196820,-0.098017140329560826},{-0.996312612182778000,-0.085797312344440158},{-0.997290456678690210,-0.073564563599667732},{-0.998118112900149180,-0.061320736302208488},{-0.998795456205172410,-0.049067674327417966},{-0.999322384588349540,-0.036807222941358832},{-0.999698818696204250,-0.024541228522912326},{-0.999924701839144500,-0.012271538285720007}};

Complex W10[512] = {{1.000000000000000000,0.000000000000000000},{0.999981175282601110,-0.006135884649154475},{0.999924701839144500,-0.012271538285719925},{0.999830581795823400,-0.018406729905804820},{0.999698818696204250,-0.024541228522912288},{0.999529417501093140,-0.030674803176636626},{0.999322384588349540,-0.036807222941358832},{0.999077727752645360,-0.042938256934940820},{0.998795456205172410,-0.049067674327418015},{0.998475580573294770,-0.055195244349689941},{0.998118112900149180,-0.061320736302208578},{0.997723066644191640,-0.067443919563664051},{0.997290456678690210,-0.073564563599667426},{0.996820299291165670,-0.079682437971430126},{0.996312612182778000,-0.085797312344439894},{0.995767414467659820,-0.091908956497132724},{0.995184726672196930,-0.098017140329560604},{0.994564570734255420,-0.104121633872054590},{0.993906970002356060,-0.110222207293883060},{0.993211949234794500,-0.116318630911904750},{0.992479534598709970,-0.122410675199216200},{0.991709753669099530,-0.128498110793793170},{0.990902635427780010,-0.134580708507126170},{0.990058210262297120,-0.140658239332849210},{0.989176509964781010,-0.146730474455361750},{0.988257567730749460,-0.152797185258443440},{0.987301418157858430,-0.158858143333861450},{0.986308097244598670,-0.164913120489969920},{0.985277642388941220,-0.170961888760301220},{0.984210092386929030,-0.177004220412148750},{0.983105487431216290,-0.183039887955140950},{0.981963869109555240,-0.189068664149806190},{0.980785280403230430,-0.195090322016128250},{0.979569765685440520,-0.201104634842091900},{0.978317370719627650,-0.207111376192218560},{0.977028142657754390,-0.213110319916091360},{0.975702130038528570,-0.219101240156869800},{0.974339382785575860,-0.225083911359792830},{0.972939952205560180,-0.231058108280671110},{0.971503890986251780,-0.237023605994367200},{0.970031253194543970,-0.242980179903263870},{0.968522094274417270,-0.248927605745720150},{0.966976471044852070,-0.254865659604514570},{0.965394441697689400,-0.260794117915275510},{0.963776065795439840,-0.266712757474898370},{0.962121404269041580,-0.272621355449948980},{0.960430519415565790,-0.278519689385053060},{0.958703474895871600,-0.284407537211271880},{0.956940335732208820,-0.290284677254462330},{0.955141168305770780,-0.296150888243623790},{0.953306040354193860,-0.302005949319228080},{0.951435020969008340,-0.307849640041534870},{0.949528180593036670,-0.313681740398891520},{0.947585591017741090,-0.319502030816015690},{0.945607325380521280,-0.325310292162262930},{0.943593458161960390,-0.331106305759876430},{0.941544065183020810,-0.336889853392220050},{0.939459223602189920,-0.342660717311994380},{0.937339011912574960,-0.348418680249434560},{0.935183509938947610,-0.354163525420490340},{0.932992798834738960,-0.359895036534988110},{0.930766961078983710,-0.365612997804773850},{0.928506080473215590,-0.371317193951837490},{0.926210242138311380,-0.377007410216418260},{0.923879532511286740,-0.382683432365089780},{0.921514039342041900,-0.388345046698826250},{0.919113851690057770,-0.393992040061048100},{0.916679059921042700,-0.399624199845646790},{0.914209755703530690,-0.405241314004989860},{0.911706032005429880,-0.410843171057903910},{0.909167983090522380,-0.416429560097637150},{0.906595704514915330,-0.422000270799799680},{0.903989293123443340,-0.427555093430282080},{0.901348847046022030,-0.433093818853151960},{0.898674465693953820,-0.438616238538527660},{0.895966249756185220,-0.444122144570429200},{0.893224301195515320,-0.449611329654606540},{0.890448723244757880,-0.455083587126343840},{0.887639620402853930,-0.460538710958240010},{0.884797098430937790,-0.465976495767966180},{0.881921264348355050,-0.471396736825997640},{0.879012226428633530,-0.476799230063322090},{0.876070094195406600,-0.482183772079122720},{0.873094978418290090,-0.487550160148436000},{0.870086991108711460,-0.492898192229784040},{0.867046245515692650,-0.498227666972781810},{0.863972856121586700,-0.503538383725717580},{0.860866938637767310,-0.508830142543106990},{0.857728610000272120,-0.514102744193221660},{0.854557988365400530,-0.519355990165589640},{0.851355193105265200,-0.524589682678468950},{0.848120344803297230,-0.529803624686294610},{0.844853565249707120,-0.534997619887097150},{0.841554977436898440,-0.540171472729892850},{0.838224705554838080,-0.545324988422046460},{0.834862874986380010,-0.550457972936604810},{0.831469612302545240,-0.555570233019602180},{0.828045045257755800,-0.560661576197336030},{0.824589302785025290,-0.565731810783613120},{0.821102514991104650,-0.570780745886967260},{0.817584813151583710,-0.575808191417845340},{0.814036329705948410,-0.580813958095764530},{0.810457198252594770,-0.585797857456438860},{0.806847553543799330,-0.590759701858874160},{0.803207531480644940,-0.595699304492433360},{0.799537269107905010,-0.600616479383868970},{0.795836904608883570,-0.605511041404325550},{0.792106577300212390,-0.610382806276309480},{0.788346427626606340,-0.615231590580626820},{0.784556597155575240,-0.620057211763289100},{0.780737228572094490,-0.624859488142386340},{0.776888465673232440,-0.629638238914926980},{0.773010453362736990,-0.634393284163645490},{0.769103337645579700,-0.639124444863775730},{0.765167265622458960,-0.643831542889791390},{0.761202385484261780,-0.648514401022112440},{0.757208846506484570,-0.653172842953776760},{0.753186799043612520,-0.657806693297078640},{0.749136394523459370,-0.662415777590171780},{0.745057785441465950,-0.666999922303637470},{0.740951125354959220,-0.671558954847018330},{0.736816568877369790,-0.676092703575315920},{0.732654271672412820,-0.680600997795453020},{0.728464390448225200,-0.685083667772700360},{0.724247082951467000,-0.689540544737066830},{0.720002507961381650,-0.693971460889653890},{0.715730825283818590,-0.698376249408972920},{0.711432195745216430,-0.702754744457225300},{0.707106781186547570,-0.707106781186547460},{0.702754744457225300,-0.711432195745216430},{0.698376249408972920,-0.715730825283818590},{0.693971460889654000,-0.720002507961381650},{0.689540544737066940,-0.724247082951466890},{0.685083667772700360,-0.728464390448225200},{0.680600997795453130,-0.732654271672412820},{0.676092703575316030,-0.736816568877369790},{0.671558954847018440,-0.740951125354959110},{0.666999922303637470,-0.745057785441465950},{0.662415777590171780,-0.749136394523459260},{0.657806693297078750,-0.753186799043612520},{0.653172842953776870,-0.757208846506484570},{0.648514401022112550,-0.761202385484261780},{0.643831542889791500,-0.765167265622458960},{0.639124444863775730,-0.769103337645579590},{0.634393284163645490,-0.773010453362736880},{0.629638238914927100,-0.776888465673232440},{0.624859488142386450,-0.780737228572094380},{0.620057211763289210,-0.784556597155575240},{0.615231590580626820,-0.788346427626606230},{0.610382806276309480,-0.792106577300212280},{0.605511041404325550,-0.795836904608883570},{0.600616479383868970,-0.799537269107905010},{0.595699304492433470,-0.803207531480644830},{0.590759701858874280,-0.806847553543799220},{0.585797857456438860,-0.810457198252594770},{0.580813958095764530,-0.814036329705948300},{0.575808191417845340,-0.817584813151583710},{0.570780745886967370,-0.821102514991104650},{0.565731810783613230,-0.824589302785025290},{0.560661576197336030,-0.828045045257755800},{0.555570233019602290,-0.831469612302545240},{0.550457972936604810,-0.834862874986380010},{0.545324988422046460,-0.838224705554837970},{0.540171472729892970,-0.841554977436898330},{0.534997619887097260,-0.844853565249707010},{0.529803624686294830,-0.848120344803297120},{0.524589682678468840,-0.851355193105265200},{0.519355990165589530,-0.854557988365400530},{0.514102744193221660,-0.857728610000272120},{0.508830142543107100,-0.860866938637767310},{0.503538383725717580,-0.863972856121586700},{0.498227666972781870,-0.867046245515692650},{0.492898192229784090,-0.870086991108711350},{0.487550160148436050,-0.873094978418290090},{0.482183772079122830,-0.876070094195406600},{0.476799230063322250,-0.879012226428633410},{0.471396736825997810,-0.881921264348354940},{0.465976495767966130,-0.884797098430937790},{0.460538710958240010,-0.887639620402853930},{0.455083587126343840,-0.890448723244757880},{0.449611329654606600,-0.893224301195515320},{0.444122144570429260,-0.895966249756185110},{0.438616238538527710,-0.898674465693953820},{0.433093818853152010,-0.901348847046022030},{0.427555093430282200,-0.903989293123443340},{0.422000270799799790,-0.906595704514915330},{0.416429560097637320,-0.909167983090522380},{0.410843171057903910,-0.911706032005429880},{0.405241314004989860,-0.914209755703530690},{0.399624199845646790,-0.916679059921042700},{0.393992040061048100,-0.919113851690057770},{0.388345046698826300,-0.921514039342041900},{0.382683432365089840,-0.923879532511286740},{0.377007410216418310,-0.926210242138311380},{0.371317193951837600,-0.928506080473215590},{0.365612997804773960,-0.930766961078983710},{0.359895036534988280,-0.932992798834738850},{0.354163525420490510,-0.935183509938947500},{0.348418680249434510,-0.937339011912574960},{0.342660717311994380,-0.939459223602189920},{0.336889853392220050,-0.941544065183020810},{0.331106305759876430,-0.943593458161960390},{0.325310292162262980,-0.945607325380521280},{0.319502030816015750,-0.947585591017741090},{0.313681740398891570,-0.949528180593036670},{0.307849640041534980,-0.951435020969008340},{0.302005949319228200,-0.953306040354193750},{0.296150888243623960,-0.955141168305770670},{0.290284677254462330,-0.956940335732208940},{0.284407537211271820,-0.958703474895871600},{0.278519689385053060,-0.960430519415565790},{0.272621355449948980,-0.962121404269041580},{0.266712757474898420,-0.963776065795439840},{0.260794117915275570,-0.965394441697689400},{0.254865659604514630,-0.966976471044852070},{0.248927605745720260,-0.968522094274417270},{0.242980179903263980,-0.970031253194543970},{0.237023605994367340,-0.971503890986251780},{0.231058108280671280,-0.972939952205560070},{0.225083911359792780,-0.974339382785575860},{0.219101240156869770,-0.975702130038528570},{0.213110319916091360,-0.977028142657754390},{0.207111376192218560,-0.978317370719627650},{0.201104634842091960,-0.979569765685440520},{0.195090322016128330,-0.980785280403230430},{0.189068664149806280,-0.981963869109555240},{0.183039887955141060,-0.983105487431216290},{0.177004220412148860,-0.984210092386929030},{0.170961888760301360,-0.985277642388941220},{0.164913120489970090,-0.986308097244598670},{0.158858143333861390,-0.987301418157858430},{0.152797185258443410,-0.988257567730749460},{0.146730474455361750,-0.989176509964781010},{0.140658239332849240,-0.990058210262297120},{0.134580708507126220,-0.990902635427780010},{0.128498110793793220,-0.991709753669099530},{0.122410675199216280,-0.992479534598709970},{0.116318630911904880,-0.993211949234794500},{0.110222207293883180,-0.993906970002356060},{0.104121633872054730,-0.994564570734255420},{0.098017140329560770,-0.995184726672196820},{0.091908956497132696,-0.995767414467659820},{0.085797312344439880,-0.996312612182778000},{0.079682437971430126,-0.996820299291165670},{0.073564563599667454,-0.997290456678690210},{0.067443919563664106,-0.997723066644191640},{0.061320736302208648,-0.998118112900149180},{0.055195244349690031,-0.998475580573294770},{0.049067674327418126,-0.998795456205172410},{0.042938256934940959,-0.999077727752645360},{0.036807222941358991,-0.999322384588349540},{0.030674803176636581,-0.999529417501093140},{0.024541228522912264,-0.999698818696204250},{0.018406729905804820,-0.999830581795823400},{0.012271538285719944,-0.999924701839144500},{0.006135884649154515,-0.999981175282601110},{0.000000000000000061,-1.000000000000000000},{-0.006135884649154393,-0.999981175282601110},{-0.012271538285719823,-0.999924701839144500},{-0.018406729905804695,-0.999830581795823400},{-0.024541228522912142,-0.999698818696204250},{-0.030674803176636459,-0.999529417501093140},{-0.036807222941358866,-0.999322384588349540},{-0.042938256934940834,-0.999077727752645360},{-0.049067674327418008,-0.998795456205172410},{-0.055195244349689913,-0.998475580573294770},{-0.061320736302208530,-0.998118112900149180},{-0.067443919563663982,-0.997723066644191640},{-0.073564563599667329,-0.997290456678690210},{-0.079682437971430015,-0.996820299291165780},{-0.085797312344439755,-0.996312612182778000},{-0.091908956497132571,-0.995767414467659820},{-0.098017140329560645,-0.995184726672196930},{-0.104121633872054600,-0.994564570734255420},{-0.110222207293883060,-0.993906970002356060},{-0.116318630911904750,-0.993211949234794500},{-0.122410675199216150,-0.992479534598709970},{-0.128498110793793110,-0.991709753669099530},{-0.134580708507126110,-0.990902635427780010},{-0.140658239332849130,-0.990058210262297120},{-0.146730474455361640,-0.989176509964781010},{-0.152797185258443300,-0.988257567730749460},{-0.158858143333861280,-0.987301418157858430},{-0.164913120489969950,-0.986308097244598670},{-0.170961888760301240,-0.985277642388941220},{-0.177004220412148750,-0.984210092386929030},{-0.183039887955140920,-0.983105487431216290},{-0.189068664149806160,-0.981963869109555240},{-0.195090322016128190,-0.980785280403230430},{-0.201104634842091820,-0.979569765685440520},{-0.207111376192218450,-0.978317370719627650},{-0.213110319916091250,-0.977028142657754390},{-0.219101240156869660,-0.975702130038528570},{-0.225083911359792670,-0.974339382785575860},{-0.231058108280671140,-0.972939952205560180},{-0.237023605994367230,-0.971503890986251780},{-0.242980179903263870,-0.970031253194543970},{-0.248927605745720120,-0.968522094274417270},{-0.254865659604514520,-0.966976471044852070},{-0.260794117915275460,-0.965394441697689400},{-0.266712757474898310,-0.963776065795439840},{-0.272621355449948870,-0.962121404269041580},{-0.278519689385052950,-0.960430519415565900},{-0.284407537211271710,-0.958703474895871600},{-0.290284677254462160,-0.956940335732208940},{-0.296150888243623840,-0.955141168305770670},{-0.302005949319228080,-0.953306040354193860},{-0.307849640041534870,-0.951435020969008340},{-0.313681740398891410,-0.949528180593036670},{-0.319502030816015640,-0.947585591017741200},{-0.325310292162262870,-0.945607325380521390},{-0.331106305759876320,-0.943593458161960390},{-0.336889853392219940,-0.941544065183020810},{-0.342660717311994270,-0.939459223602189920},{-0.348418680249434400,-0.937339011912574960},{-0.354163525420490400,-0.935183509938947610},{-0.359895036534988170,-0.932992798834738850},{-0.365612997804773850,-0.930766961078983710},{-0.371317193951837490,-0.928506080473215590},{-0.377007410216418200,-0.926210242138311380},{-0.382683432365089730,-0.923879532511286740},{-0.388345046698826190,-0.921514039342042010},{-0.393992040061047990,-0.919113851690057770},{-0.399624199845646680,-0.916679059921042700},{-0.405241314004989750,-0.914209755703530690},{-0.410843171057903800,-0.911706032005429880},{-0.416429560097636990,-0.909167983090522490},{-0.422000270799799680,-0.906595704514915330},{-0.427555093430281860,-0.903989293123443450},{-0.433093818853151960,-0.901348847046022030},{-0.438616238538527380,-0.898674465693953930},{-0.444122144570429140,-0.895966249756185220},{-0.449611329654606710,-0.893224301195515210},{-0.455083587126343720,-0.890448723244757990},{-0.460538710958240120,-0.887639620402853930},{-0.465976495767966010,-0.884797098430937900},{-0.471396736825997700,-0.881921264348355050},{-0.476799230063321920,-0.879012226428633530},{-0.482183772079122720,-0.876070094195406600},{-0.487550160148435720,-0.873094978418290200},{-0.492898192229783980,-0.870086991108711460},{-0.498227666972781590,-0.867046245515692760},{-0.503538383725717460,-0.863972856121586810},{-0.508830142543107100,-0.860866938637767200},{-0.514102744193221550,-0.857728610000272120},{-0.519355990165589640,-0.854557988365400530},{-0.524589682678468730,-0.851355193105265200},{-0.529803624686294720,-0.848120344803297230},{-0.534997619887097040,-0.844853565249707230},{-0.540171472729892850,-0.841554977436898440},{-0.545324988422046240,-0.838224705554838190},{-0.550457972936604700,-0.834862874986380120},{-0.555570233019601960,-0.831469612302545350},{-0.560661576197335920,-0.828045045257755800},{-0.565731810783613230,-0.824589302785025180},{-0.570780745886967140,-0.821102514991104760},{-0.575808191417845340,-0.817584813151583710},{-0.580813958095764420,-0.814036329705948520},{-0.585797857456438860,-0.810457198252594770},{-0.590759701858874050,-0.806847553543799450},{-0.595699304492433360,-0.803207531480644940},{-0.600616479383868750,-0.799537269107905240},{-0.605511041404325430,-0.795836904608883570},{-0.610382806276309590,-0.792106577300212280},{-0.615231590580626710,-0.788346427626606340},{-0.620057211763289210,-0.784556597155575130},{-0.624859488142386230,-0.780737228572094600},{-0.629638238914927100,-0.776888465673232440},{-0.634393284163645380,-0.773010453362737100},{-0.639124444863775730,-0.769103337645579590},{-0.643831542889791280,-0.765167265622459070},{-0.648514401022112440,-0.761202385484261890},{-0.653172842953776530,-0.757208846506484680},{-0.657806693297078640,-0.753186799043612520},{-0.662415777590171890,-0.749136394523459260},{-0.666999922303637360,-0.745057785441466060},{-0.671558954847018440,-0.740951125354958990},{-0.676092703575315810,-0.736816568877370020},{-0.680600997795453020,-0.732654271672412820},{-0.685083667772700240,-0.728464390448225310},{-0.689540544737066940,-0.724247082951466890},{-0.693971460889653780,-0.720002507961381770},{-0.698376249408972800,-0.715730825283818710},{-0.702754744457225080,-0.711432195745216660},{-0.707106781186547460,-0.707106781186547570},{-0.711432195745216540,-0.702754744457225190},{-0.715730825283818590,-0.698376249408972920},{-0.720002507961381650,-0.693971460889653890},{-0.724247082951466780,-0.689540544737067050},{-0.728464390448225200,-0.685083667772700360},{-0.732654271672412700,-0.680600997795453240},{-0.736816568877369790,-0.676092703575315920},{-0.740951125354958880,-0.671558954847018550},{-0.745057785441465950,-0.666999922303637580},{-0.749136394523459150,-0.662415777590172010},{-0.753186799043612410,-0.657806693297078750},{-0.757208846506484680,-0.653172842953776640},{-0.761202385484261670,-0.648514401022112550},{-0.765167265622458960,-0.643831542889791390},{-0.769103337645579480,-0.639124444863775840},{-0.773010453362736990,-0.634393284163645490},{-0.776888465673232330,-0.629638238914927210},{-0.780737228572094490,-0.624859488142386340},{-0.784556597155575020,-0.620057211763289430},{-0.788346427626606230,-0.615231590580626930},{-0.792106577300212170,-0.610382806276309700},{-0.795836904608883460,-0.605511041404325550},{-0.799537269107905120,-0.600616479383868860},{-0.803207531480644830,-0.595699304492433470},{-0.806847553543799330,-0.590759701858874160},{-0.810457198252594660,-0.585797857456438980},{-0.814036329705948410,-0.580813958095764530},{-0.817584813151583600,-0.575808191417845450},{-0.821102514991104650,-0.570780745886967260},{-0.824589302785025070,-0.565731810783613450},{-0.828045045257755690,-0.560661576197336140},{-0.831469612302545350,-0.555570233019602180},{-0.834862874986380010,-0.550457972936604920},{-0.838224705554838080,-0.545324988422046350},{-0.841554977436898330,-0.540171472729892970},{-0.844853565249707120,-0.534997619887097150},{-0.848120344803297120,-0.529803624686294830},{-0.851355193105265200,-0.524589682678468950},{-0.854557988365400420,-0.519355990165589750},{-0.857728610000272010,-0.514102744193221770},{-0.860866938637767200,-0.508830142543107320},{-0.863972856121586700,-0.503538383725717690},{-0.867046245515692650,-0.498227666972781760},{-0.870086991108711350,-0.492898192229784150},{-0.873094978418290090,-0.487550160148435880},{-0.876070094195406490,-0.482183772079122890},{-0.879012226428633530,-0.476799230063322090},{-0.881921264348354940,-0.471396736825997860},{-0.884797098430937790,-0.465976495767966180},{-0.887639620402853820,-0.460538710958240230},{-0.890448723244757880,-0.455083587126343890},{-0.893224301195515210,-0.449611329654606870},{-0.895966249756185110,-0.444122144570429310},{-0.898674465693953930,-0.438616238538527550},{-0.901348847046021920,-0.433093818853152070},{-0.903989293123443340,-0.427555093430282030},{-0.906595704514915330,-0.422000270799799850},{-0.909167983090522380,-0.416429560097637150},{-0.911706032005429770,-0.410843171057904130},{-0.914209755703530690,-0.405241314004989920},{-0.916679059921042590,-0.399624199845647070},{-0.919113851690057770,-0.393992040061048150},{-0.921514039342041790,-0.388345046698826580},{-0.923879532511286740,-0.382683432365089890},{-0.926210242138311380,-0.377007410216418150},{-0.928506080473215480,-0.371317193951837710},{-0.930766961078983710,-0.365612997804773800},{-0.932992798834738850,-0.359895036534988330},{-0.935183509938947610,-0.354163525420490400},{-0.937339011912574850,-0.348418680249434790},{-0.939459223602189920,-0.342660717311994430},{-0.941544065183020700,-0.336889853392220330},{-0.943593458161960390,-0.331106305759876480},{-0.945607325380521170,-0.325310292162263260},{-0.947585591017741090,-0.319502030816015800},{-0.949528180593036670,-0.313681740398891410},{-0.951435020969008340,-0.307849640041535030},{-0.953306040354193860,-0.302005949319228030},{-0.955141168305770670,-0.296150888243624010},{-0.956940335732208820,-0.290284677254462390},{-0.958703474895871490,-0.284407537211272100},{-0.960430519415565790,-0.278519689385053170},{-0.962121404269041470,-0.272621355449949250},{-0.963776065795439840,-0.266712757474898480},{-0.965394441697689290,-0.260794117915275850},{-0.966976471044852070,-0.254865659604514680},{-0.968522094274417380,-0.248927605745720090},{-0.970031253194543970,-0.242980179903264070},{-0.971503890986251780,-0.237023605994367170},{-0.972939952205560070,-0.231058108280671330},{-0.974339382785575860,-0.225083911359792830},{-0.975702130038528460,-0.219101240156870050},{-0.977028142657754280,-0.213110319916091420},{-0.978317370719627540,-0.207111376192218840},{-0.979569765685440520,-0.201104634842092010},{-0.980785280403230430,-0.195090322016128610},{-0.981963869109555240,-0.189068664149806360},{-0.983105487431216400,-0.183039887955140900},{-0.984210092386929030,-0.177004220412148940},{-0.985277642388941220,-0.170961888760301220},{-0.986308097244598560,-0.164913120489970140},{-0.987301418157858320,-0.158858143333861470},{-0.988257567730749460,-0.152797185258443690},{-0.989176509964781010,-0.146730474455361800},{-0.990058210262297010,-0.140658239332849540},{-0.990902635427780010,-0.134580708507126280},{-0.991709753669099530,-0.128498110793793090},{-0.992479534598709970,-0.122410675199216350},{-0.993211949234794500,-0.116318630911904710},{-0.993906970002356060,-0.110222207293883240},{-0.994564570734255420,-0.104121633872054570},{-0.995184726672196820,-0.098017140329560826},{-0.995767414467659820,-0.091908956497132752},{-0.996312612182778000,-0.085797312344440158},{-0.996820299291165670,-0.079682437971430195},{-0.997290456678690210,-0.073564563599667732},{-0.997723066644191640,-0.067443919563664176},{-0.998118112900149180,-0.061320736302208488},{-0.998475580573294770,-0.055195244349690094},{-0.998795456205172410,-0.049067674327417966},{-0.999077727752645360,-0.042938256934941021},{-0.999322384588349540,-0.036807222941358832},{-0.999529417501093140,-0.030674803176636865},{-0.999698818696204250,-0.024541228522912326},{-0.999830581795823400,-0.018406729905805101},{-0.999924701839144500,-0.012271538285720007},{-0.999981175282601110,-0.006135884649154799}};

Complex W11[1024] = {{1.000000000000000000,0.000000000000000000},{0.999995293809576190,-0.003067956762965976},{0.999981175282601110,-0.006135884649154475},{0.999957644551963900,-0.009203754782059819},{0.999924701839144500,-0.012271538285719925},{0.999882347454212560,-0.015339206284988100},{0.999830581795823400,-0.018406729905804820},{0.999769405351215280,-0.021474080275469508},{0.999698818696204250,-0.024541228522912288},{0.999618822495178640,-0.027608145778965740},{0.999529417501093140,-0.030674803176636626},{0.999430604555461730,-0.033741171851377580},{0.999322384588349540,-0.036807222941358832},{0.999204758618363890,-0.039872927587739811},{0.999077727752645360,-0.042938256934940820},{0.998941293186856870,-0.046003182130914623},{0.998795456205172410,-0.049067674327418015},{0.998640218180265270,-0.052131704680283324},{0.998475580573294770,-0.055195244349689941},{0.998301544933892890,-0.058258264500435752},{0.998118112900149180,-0.061320736302208578},{0.997925286198596000,-0.064382630929857465},{0.997723066644191640,-0.067443919563664051},{0.997511456140303450,-0.070504573389613856},{0.997290456678690210,-0.073564563599667426},{0.997060070339482960,-0.076623861392031492},{0.996820299291165670,-0.079682437971430126},{0.996571145790554840,-0.082740264549375692},{0.996312612182778000,-0.085797312344439894},{0.996044700901251970,-0.088853552582524600},{0.995767414467659820,-0.091908956497132724},{0.995480755491926940,-0.094963495329638992},{0.995184726672196930,-0.098017140329560604},{0.994879330794805620,-0.101069862754827820},{0.994564570734255420,-0.104121633872054590},{0.994240449453187900,-0.107172424956808840},{0.993906970002356060,-0.110222207293883060},{0.993564135520595300,-0.113270952177564350},{0.993211949234794500,-0.116318630911904750},{0.992850414459865100,-0.119365214810991350},{0.992479534598709970,-0.122410675199216200},{0.992099313142191800,-0.125454983411546230},{0.991709753669099530,-0.128498110793793170},{0.991310859846115440,-0.131540028702883120},{0.990902635427780010,-0.134580708507126170},{0.990485084256457090,-0.137620121586486040},{0.990058210262297120,-0.140658239332849210},{0.989622017463200890,-0.143695033150294470},{0.989176509964781010,-0.146730474455361750},{0.988721691960323780,-0.149764534677321510},{0.988257567730749460,-0.152797185258443440},{0.987784141644572180,-0.155828397654265230},{0.987301418157858430,-0.158858143333861450},{0.986809401814185530,-0.161886393780111830},{0.986308097244598670,-0.164913120489969920},{0.985797509167567480,-0.167938294974731170},{0.985277642388941220,-0.170961888760301220},{0.984748501801904210,-0.173983873387463820},{0.984210092386929030,-0.177004220412148750},{0.983662419211730250,-0.180022901405699510},{0.983105487431216290,-0.183039887955140950},{0.982539302287441240,-0.186055151663446630},{0.981963869109555240,-0.189068664149806190},{0.981379193313754560,-0.192080397049892440},{0.980785280403230430,-0.195090322016128250},{0.980182135968117430,-0.198098410717953560},{0.979569765685440520,-0.201104634842091900},{0.978948175319062200,-0.204108966092816870},{0.978317370719627650,-0.207111376192218560},{0.977677357824509930,-0.210111836880469610},{0.977028142657754390,-0.213110319916091360},{0.976369731330021140,-0.216106797076219520},{0.975702130038528570,-0.219101240156869800},{0.975025345066994120,-0.222093620973203510},{0.974339382785575860,-0.225083911359792830},{0.973644249650811980,-0.228072083170885730},{0.972939952205560180,-0.231058108280671110},{0.972226497078936270,-0.234041958583543430},{0.971503890986251780,-0.237023605994367200},{0.970772140728950350,-0.240003022448741500},{0.970031253194543970,-0.242980179903263870},{0.969281235356548530,-0.245955050335794590},{0.968522094274417270,-0.248927605745720150},{0.967753837093475510,-0.251897818154216970},{0.966976471044852070,-0.254865659604514570},{0.966190003445412500,-0.257831102162158990},{0.965394441697689400,-0.260794117915275510},{0.964589793289812760,-0.263754678974831350},{0.963776065795439840,-0.266712757474898370},{0.962953266873683880,-0.269668325572915090},{0.962121404269041580,-0.272621355449948980},{0.961280485811320640,-0.275571819310958140},{0.960430519415565790,-0.278519689385053060},{0.959571513081984520,-0.281464937925757940},{0.958703474895871600,-0.284407537211271880},{0.957826413027532910,-0.287347459544729510},{0.956940335732208820,-0.290284677254462330},{0.956045251349996410,-0.293219162694258630},{0.955141168305770780,-0.296150888243623790},{0.954228095109105670,-0.299079826308040480},{0.953306040354193860,-0.302005949319228080},{0.952375012719765880,-0.304929229735402370},{0.951435020969008340,-0.307849640041534870},{0.950486073949481700,-0.310767152749611470},{0.949528180593036670,-0.313681740398891520},{0.948561349915730270,-0.316593375556165850},{0.947585591017741090,-0.319502030816015690},{0.946600913083283530,-0.322407678801069850},{0.945607325380521280,-0.325310292162262930},{0.944604837261480260,-0.328209843579092500},{0.943593458161960390,-0.331106305759876430},{0.942573197601446870,-0.333999651442009380},{0.941544065183020810,-0.336889853392220050},{0.940506070593268300,-0.339776884406826850},{0.939459223602189920,-0.342660717311994380},{0.938403534063108060,-0.345541324963989090},{0.937339011912574960,-0.348418680249434560},{0.936265667170278260,-0.351292756085567090},{0.935183509938947610,-0.354163525420490340},{0.934092550404258870,-0.357030961233429980},{0.932992798834738960,-0.359895036534988110},{0.931884265581668150,-0.362755724367397230},{0.930766961078983710,-0.365612997804773850},{0.929640895843181210,-0.368466829953372320},{0.928506080473215590,-0.371317193951837490},{0.927362525650401110,-0.374164062971457930},{0.926210242138311380,-0.377007410216418260},{0.925049240782677580,-0.379847208924051160},{0.923879532511286740,-0.382683432365089780},{0.922701128333878630,-0.385516053843918850},{0.921514039342041900,-0.388345046698826250},{0.920318276709110590,-0.391170384302253870},{0.919113851690057770,-0.393992040061048100},{0.917900775621390500,-0.396809987416710310},{0.916679059921042700,-0.399624199845646790},{0.915448716088267830,-0.402434650859418430},{0.914209755703530690,-0.405241314004989860},{0.912962190428398210,-0.408044162864978690},{0.911706032005429880,-0.410843171057903910},{0.910441292258067250,-0.413638312238434500},{0.909167983090522380,-0.416429560097637150},{0.907886116487666260,-0.419216888363223910},{0.906595704514915330,-0.422000270799799680},{0.905296759318118820,-0.424779681209108810},{0.903989293123443340,-0.427555093430282080},{0.902673318237258830,-0.430326481340082610},{0.901348847046022030,-0.433093818853151960},{0.900015892016160170,-0.435857079922255470},{0.898674465693953820,-0.438616238538527660},{0.897324580705418320,-0.441371268731716670},{0.895966249756185220,-0.444122144570429200},{0.894599485631382700,-0.446868840162374160},{0.893224301195515320,-0.449611329654606540},{0.891840709392342720,-0.452349587233770890},{0.890448723244757880,-0.455083587126343840},{0.889048355854664570,-0.457813303598877170},{0.887639620402853930,-0.460538710958240010},{0.886222530148880640,-0.463259783551860150},{0.884797098430937790,-0.465976495767966180},{0.883363338665731580,-0.468688822035827960},{0.881921264348355050,-0.471396736825997640},{0.880470889052160750,-0.474100214650549970},{0.879012226428633530,-0.476799230063322090},{0.877545290207261350,-0.479493757660152950},{0.876070094195406600,-0.482183772079122720},{0.874586652278176110,-0.484869248000791060},{0.873094978418290090,-0.487550160148436000},{0.871595086655951090,-0.490226483288291160},{0.870086991108711460,-0.492898192229784040},{0.868570705971340900,-0.495565261825772540},{0.867046245515692650,-0.498227666972781810},{0.865513624090569090,-0.500885382611240710},{0.863972856121586700,-0.503538383725717580},{0.862423956111040500,-0.506186645345155230},{0.860866938637767310,-0.508830142543106990},{0.859301818357008470,-0.511468850437970300},{0.857728610000272120,-0.514102744193221660},{0.856147328375194470,-0.516731799017649870},{0.854557988365400530,-0.519355990165589640},{0.852960604930363630,-0.521975292937154390},{0.851355193105265200,-0.524589682678468950},{0.849741768000852550,-0.527199134781901280},{0.848120344803297230,-0.529803624686294610},{0.846490938774052130,-0.532403127877197900},{0.844853565249707120,-0.534997619887097150},{0.843208239641845440,-0.537587076295645390},{0.841554977436898440,-0.540171472729892850},{0.839893794195999520,-0.542750784864515890},{0.838224705554838080,-0.545324988422046460},{0.836547727223512010,-0.547894059173100190},{0.834862874986380010,-0.550457972936604810},{0.833170164701913190,-0.553016705580027470},{0.831469612302545240,-0.555570233019602180},{0.829761233794523050,-0.558118531220556100},{0.828045045257755800,-0.560661576197336030},{0.826321062845663530,-0.563199344013834090},{0.824589302785025290,-0.565731810783613120},{0.822849781375826430,-0.568258952670131490},{0.821102514991104650,-0.570780745886967260},{0.819347520076797010,-0.573297166698042200},{0.817584813151583710,-0.575808191417845340},{0.815814410806733780,-0.578313796411655590},{0.814036329705948410,-0.580813958095764530},{0.812250586585203880,-0.583308652937698290},{0.810457198252594770,-0.585797857456438860},{0.808656181588174980,-0.588281548222645220},{0.806847553543799330,-0.590759701858874160},{0.805031331142963660,-0.593232295039799800},{0.803207531480644940,-0.595699304492433360},{0.801376171723140240,-0.598160706996342380},{0.799537269107905010,-0.600616479383868970},{0.797690840943391160,-0.603066598540348160},{0.795836904608883570,-0.605511041404325550},{0.793975477554337170,-0.607949784967773630},{0.792106577300212390,-0.610382806276309480},{0.790230221437310030,-0.612810082429409710},{0.788346427626606340,-0.615231590580626820},{0.786455213599085770,-0.617647307937803870},{0.784556597155575240,-0.620057211763289100},{0.782650596166575730,-0.622461279374149970},{0.780737228572094490,-0.624859488142386340},{0.778816512381475980,-0.627251815495144080},{0.776888465673232440,-0.629638238914926980},{0.774953106594873930,-0.632018735939809060},{0.773010453362736990,-0.634393284163645490},{0.771060524261813820,-0.636761861236284200},{0.769103337645579700,-0.639124444863775730},{0.767138911935820400,-0.641481012808583050},{0.765167265622458960,-0.643831542889791390},{0.763188417263381270,-0.646176012983316280},{0.761202385484261780,-0.648514401022112440},{0.759209188978387960,-0.650846684996380990},{0.757208846506484570,-0.653172842953776760},{0.755201376896536550,-0.655492852999615350},{0.753186799043612520,-0.657806693297078640},{0.751165131909686370,-0.660114342067420480},{0.749136394523459370,-0.662415777590171780},{0.747100605980180130,-0.664710978203344790},{0.745057785441465950,-0.666999922303637470},{0.743007952135121720,-0.669282588346636010},{0.740951125354959220,-0.671558954847018330},{0.738887324460615110,-0.673829000378756040},{0.736816568877369790,-0.676092703575315920},{0.734738878095963500,-0.678350043129861470},{0.732654271672412820,-0.680600997795453020},{0.730562769227827590,-0.682845546385248080},{0.728464390448225200,-0.685083667772700360},{0.726359155084346010,-0.687315340891759050},{0.724247082951467000,-0.689540544737066830},{0.722128193929215350,-0.691759258364157750},{0.720002507961381650,-0.693971460889653890},{0.717870045055731710,-0.696177131491462990},{0.715730825283818590,-0.698376249408972920},{0.713584868780793520,-0.700568793943248340},{0.711432195745216430,-0.702754744457225300},{0.709272826438865690,-0.704934080375904880},{0.707106781186547570,-0.707106781186547460},{0.704934080375904990,-0.709272826438865690},{0.702754744457225300,-0.711432195745216430},{0.700568793943248450,-0.713584868780793520},{0.698376249408972920,-0.715730825283818590},{0.696177131491462990,-0.717870045055731710},{0.693971460889654000,-0.720002507961381650},{0.691759258364157750,-0.722128193929215350},{0.689540544737066940,-0.724247082951466890},{0.687315340891759160,-0.726359155084346010},{0.685083667772700360,-0.728464390448225200},{0.682845546385248080,-0.730562769227827590},{0.680600997795453130,-0.732654271672412820},{0.678350043129861470,-0.734738878095963390},{0.676092703575316030,-0.736816568877369790},{0.673829000378756150,-0.738887324460615110},{0.671558954847018440,-0.740951125354959110},{0.669282588346636010,-0.743007952135121720},{0.666999922303637470,-0.745057785441465950},{0.664710978203344900,-0.747100605980180130},{0.662415777590171780,-0.749136394523459260},{0.660114342067420480,-0.751165131909686370},{0.657806693297078750,-0.753186799043612520},{0.655492852999615460,-0.755201376896536550},{0.653172842953776870,-0.757208846506484570},{0.650846684996380990,-0.759209188978387960},{0.648514401022112550,-0.761202385484261780},{0.646176012983316390,-0.763188417263381270},{0.643831542889791500,-0.765167265622458960},{0.641481012808583160,-0.767138911935820400},{0.639124444863775730,-0.769103337645579590},{0.636761861236284200,-0.771060524261813820},{0.634393284163645490,-0.773010453362736880},{0.632018735939809060,-0.774953106594873820},{0.629638238914927100,-0.776888465673232440},{0.627251815495144190,-0.778816512381475870},{0.624859488142386450,-0.780737228572094380},{0.622461279374150080,-0.782650596166575730},{0.620057211763289210,-0.784556597155575240},{0.617647307937803980,-0.786455213599085770},{0.615231590580626820,-0.788346427626606230},{0.612810082429409710,-0.790230221437310030},{0.610382806276309480,-0.792106577300212280},{0.607949784967773740,-0.793975477554337170},{0.605511041404325550,-0.795836904608883570},{0.603066598540348280,-0.797690840943391040},{0.600616479383868970,-0.799537269107905010},{0.598160706996342380,-0.801376171723140130},{0.595699304492433470,-0.803207531480644830},{0.593232295039799800,-0.805031331142963550},{0.590759701858874280,-0.806847553543799220},{0.588281548222645330,-0.808656181588174980},{0.585797857456438860,-0.810457198252594770},{0.583308652937698290,-0.812250586585203880},{0.580813958095764530,-0.814036329705948300},{0.578313796411655590,-0.815814410806733780},{0.575808191417845340,-0.817584813151583710},{0.573297166698042320,-0.819347520076796900},{0.570780745886967370,-0.821102514991104650},{0.568258952670131490,-0.822849781375826320},{0.565731810783613230,-0.824589302785025290},{0.563199344013834090,-0.826321062845663530},{0.560661576197336030,-0.828045045257755800},{0.558118531220556100,-0.829761233794523050},{0.555570233019602290,-0.831469612302545240},{0.553016705580027580,-0.833170164701913190},{0.550457972936604810,-0.834862874986380010},{0.547894059173100190,-0.836547727223511890},{0.545324988422046460,-0.838224705554837970},{0.542750784864516000,-0.839893794195999410},{0.540171472729892970,-0.841554977436898330},{0.537587076295645510,-0.843208239641845440},{0.534997619887097260,-0.844853565249707010},{0.532403127877198010,-0.846490938774052130},{0.529803624686294830,-0.848120344803297120},{0.527199134781901390,-0.849741768000852440},{0.524589682678468840,-0.851355193105265200},{0.521975292937154390,-0.852960604930363630},{0.519355990165589530,-0.854557988365400530},{0.516731799017649980,-0.856147328375194470},{0.514102744193221660,-0.857728610000272120},{0.511468850437970520,-0.859301818357008360},{0.508830142543107100,-0.860866938637767310},{0.506186645345155450,-0.862423956111040500},{0.503538383725717580,-0.863972856121586700},{0.500885382611240940,-0.865513624090568980},{0.498227666972781870,-0.867046245515692650},{0.495565261825772490,-0.868570705971340900},{0.492898192229784090,-0.870086991108711350},{0.490226483288291100,-0.871595086655951090},{0.487550160148436050,-0.873094978418290090},{0.484869248000791120,-0.874586652278176110},{0.482183772079122830,-0.876070094195406600},{0.479493757660153010,-0.877545290207261240},{0.476799230063322250,-0.879012226428633410},{0.474100214650550020,-0.880470889052160750},{0.471396736825997810,-0.881921264348354940},{0.468688822035827960,-0.883363338665731580},{0.465976495767966130,-0.884797098430937790},{0.463259783551860260,-0.886222530148880640},{0.460538710958240010,-0.887639620402853930},{0.457813303598877290,-0.889048355854664570},{0.455083587126343840,-0.890448723244757880},{0.452349587233771000,-0.891840709392342720},{0.449611329654606600,-0.893224301195515320},{0.446868840162374330,-0.894599485631382580},{0.444122144570429260,-0.895966249756185110},{0.441371268731716620,-0.897324580705418320},{0.438616238538527710,-0.898674465693953820},{0.435857079922255470,-0.900015892016160280},{0.433093818853152010,-0.901348847046022030},{0.430326481340082610,-0.902673318237258830},{0.427555093430282200,-0.903989293123443340},{0.424779681209108810,-0.905296759318118820},{0.422000270799799790,-0.906595704514915330},{0.419216888363223960,-0.907886116487666260},{0.416429560097637320,-0.909167983090522380},{0.413638312238434560,-0.910441292258067140},{0.410843171057903910,-0.911706032005429880},{0.408044162864978740,-0.912962190428398100},{0.405241314004989860,-0.914209755703530690},{0.402434650859418540,-0.915448716088267830},{0.399624199845646790,-0.916679059921042700},{0.396809987416710420,-0.917900775621390390},{0.393992040061048100,-0.919113851690057770},{0.391170384302253980,-0.920318276709110480},{0.388345046698826300,-0.921514039342041900},{0.385516053843919020,-0.922701128333878520},{0.382683432365089840,-0.923879532511286740},{0.379847208924051110,-0.925049240782677580},{0.377007410216418310,-0.926210242138311380},{0.374164062971457990,-0.927362525650401110},{0.371317193951837600,-0.928506080473215590},{0.368466829953372320,-0.929640895843181210},{0.365612997804773960,-0.930766961078983710},{0.362755724367397230,-0.931884265581668150},{0.359895036534988280,-0.932992798834738850},{0.357030961233430030,-0.934092550404258870},{0.354163525420490510,-0.935183509938947500},{0.351292756085567150,-0.936265667170278260},{0.348418680249434510,-0.937339011912574960},{0.345541324963989150,-0.938403534063108060},{0.342660717311994380,-0.939459223602189920},{0.339776884406826960,-0.940506070593268300},{0.336889853392220050,-0.941544065183020810},{0.333999651442009490,-0.942573197601446870},{0.331106305759876430,-0.943593458161960390},{0.328209843579092660,-0.944604837261480260},{0.325310292162262980,-0.945607325380521280},{0.322407678801070020,-0.946600913083283530},{0.319502030816015750,-0.947585591017741090},{0.316593375556165850,-0.948561349915730270},{0.313681740398891570,-0.949528180593036670},{0.310767152749611470,-0.950486073949481700},{0.307849640041534980,-0.951435020969008340},{0.304929229735402430,-0.952375012719765880},{0.302005949319228200,-0.953306040354193750},{0.299079826308040480,-0.954228095109105670},{0.296150888243623960,-0.955141168305770670},{0.293219162694258680,-0.956045251349996410},{0.290284677254462330,-0.956940335732208940},{0.287347459544729570,-0.957826413027532910},{0.284407537211271820,-0.958703474895871600},{0.281464937925758050,-0.959571513081984520},{0.278519689385053060,-0.960430519415565790},{0.275571819310958250,-0.961280485811320640},{0.272621355449948980,-0.962121404269041580},{0.269668325572915200,-0.962953266873683880},{0.266712757474898420,-0.963776065795439840},{0.263754678974831510,-0.964589793289812650},{0.260794117915275570,-0.965394441697689400},{0.257831102162158930,-0.966190003445412620},{0.254865659604514630,-0.966976471044852070},{0.251897818154216910,-0.967753837093475510},{0.248927605745720260,-0.968522094274417270},{0.245955050335794590,-0.969281235356548530},{0.242980179903263980,-0.970031253194543970},{0.240003022448741500,-0.970772140728950350},{0.237023605994367340,-0.971503890986251780},{0.234041958583543460,-0.972226497078936270},{0.231058108280671280,-0.972939952205560070},{0.228072083170885790,-0.973644249650811870},{0.225083911359792780,-0.974339382785575860},{0.222093620973203590,-0.975025345066994120},{0.219101240156869770,-0.975702130038528570},{0.216106797076219600,-0.976369731330021140},{0.213110319916091360,-0.977028142657754390},{0.210111836880469720,-0.977677357824509930},{0.207111376192218560,-0.978317370719627650},{0.204108966092817010,-0.978948175319062200},{0.201104634842091960,-0.979569765685440520},{0.198098410717953730,-0.980182135968117320},{0.195090322016128330,-0.980785280403230430},{0.192080397049892410,-0.981379193313754560},{0.189068664149806280,-0.981963869109555240},{0.186055151663446630,-0.982539302287441240},{0.183039887955141060,-0.983105487431216290},{0.180022901405699510,-0.983662419211730250},{0.177004220412148860,-0.984210092386929030},{0.173983873387463850,-0.984748501801904210},{0.170961888760301360,-0.985277642388941220},{0.167938294974731230,-0.985797509167567370},{0.164913120489970090,-0.986308097244598670},{0.161886393780111910,-0.986809401814185420},{0.158858143333861390,-0.987301418157858430},{0.155828397654265320,-0.987784141644572180},{0.152797185258443410,-0.988257567730749460},{0.149764534677321620,-0.988721691960323780},{0.146730474455361750,-0.989176509964781010},{0.143695033150294580,-0.989622017463200780},{0.140658239332849240,-0.990058210262297120},{0.137620121586486180,-0.990485084256456980},{0.134580708507126220,-0.990902635427780010},{0.131540028702883280,-0.991310859846115440},{0.128498110793793220,-0.991709753669099530},{0.125454983411546210,-0.992099313142191800},{0.122410675199216280,-0.992479534598709970},{0.119365214810991350,-0.992850414459865100},{0.116318630911904880,-0.993211949234794500},{0.113270952177564360,-0.993564135520595300},{0.110222207293883180,-0.993906970002356060},{0.107172424956808870,-0.994240449453187900},{0.104121633872054730,-0.994564570734255420},{0.101069862754827880,-0.994879330794805620},{0.098017140329560770,-0.995184726672196820},{0.094963495329639061,-0.995480755491926940},{0.091908956497132696,-0.995767414467659820},{0.088853552582524684,-0.996044700901251970},{0.085797312344439880,-0.996312612182778000},{0.082740264549375803,-0.996571145790554840},{0.079682437971430126,-0.996820299291165670},{0.076623861392031617,-0.997060070339482960},{0.073564563599667454,-0.997290456678690210},{0.070504573389614009,-0.997511456140303450},{0.067443919563664106,-0.997723066644191640},{0.064382630929857410,-0.997925286198596000},{0.061320736302208648,-0.998118112900149180},{0.058258264500435732,-0.998301544933892890},{0.055195244349690031,-0.998475580573294770},{0.052131704680283317,-0.998640218180265270},{0.049067674327418126,-0.998795456205172410},{0.046003182130914644,-0.998941293186856870},{0.042938256934940959,-0.999077727752645360},{0.039872927587739845,-0.999204758618363890},{0.036807222941358991,-0.999322384588349540},{0.033741171851377642,-0.999430604555461730},{0.030674803176636581,-0.999529417501093140},{0.027608145778965820,-0.999618822495178640},{0.024541228522912264,-0.999698818696204250},{0.021474080275469605,-0.999769405351215280},{0.018406729905804820,-0.999830581795823400},{0.015339206284988220,-0.999882347454212560},{0.012271538285719944,-0.999924701839144500},{0.009203754782059960,-0.999957644551963900},{0.006135884649154515,-0.999981175282601110},{0.003067956762966138,-0.999995293809576190},{0.000000000000000061,-1.000000000000000000},{-0.003067956762966016,-0.999995293809576190},{-0.006135884649154393,-0.999981175282601110},{-0.009203754782059837,-0.999957644551963900},{-0.012271538285719823,-0.999924701839144500},{-0.015339206284988098,-0.999882347454212560},{-0.018406729905804695,-0.999830581795823400},{-0.021474080275469484,-0.999769405351215280},{-0.024541228522912142,-0.999698818696204250},{-0.027608145778965698,-0.999618822495178640},{-0.030674803176636459,-0.999529417501093140},{-0.033741171851377517,-0.999430604555461730},{-0.036807222941358866,-0.999322384588349540},{-0.039872927587739727,-0.999204758618363890},{-0.042938256934940834,-0.999077727752645360},{-0.046003182130914519,-0.998941293186856870},{-0.049067674327418008,-0.998795456205172410},{-0.052131704680283192,-0.998640218180265270},{-0.055195244349689913,-0.998475580573294770},{-0.058258264500435607,-0.998301544933892890},{-0.061320736302208530,-0.998118112900149180},{-0.064382630929857285,-0.997925286198596000},{-0.067443919563663982,-0.997723066644191640},{-0.070504573389613898,-0.997511456140303450},{-0.073564563599667329,-0.997290456678690210},{-0.076623861392031506,-0.997060070339482960},{-0.079682437971430015,-0.996820299291165780},{-0.082740264549375678,-0.996571145790554840},{-0.085797312344439755,-0.996312612182778000},{-0.088853552582524559,-0.996044700901251970},{-0.091908956497132571,-0.995767414467659820},{-0.094963495329638950,-0.995480755491926940},{-0.098017140329560645,-0.995184726672196930},{-0.101069862754827750,-0.994879330794805620},{-0.104121633872054600,-0.994564570734255420},{-0.107172424956808760,-0.994240449453187900},{-0.110222207293883060,-0.993906970002356060},{-0.113270952177564240,-0.993564135520595300},{-0.116318630911904750,-0.993211949234794500},{-0.119365214810991230,-0.992850414459865100},{-0.122410675199216150,-0.992479534598709970},{-0.125454983411546070,-0.992099313142191800},{-0.128498110793793110,-0.991709753669099530},{-0.131540028702883140,-0.991310859846115440},{-0.134580708507126110,-0.990902635427780010},{-0.137620121586486070,-0.990485084256456980},{-0.140658239332849130,-0.990058210262297120},{-0.143695033150294440,-0.989622017463200890},{-0.146730474455361640,-0.989176509964781010},{-0.149764534677321510,-0.988721691960323780},{-0.152797185258443300,-0.988257567730749460},{-0.155828397654265200,-0.987784141644572180},{-0.158858143333861280,-0.987301418157858430},{-0.161886393780111770,-0.986809401814185530},{-0.164913120489969950,-0.986308097244598670},{-0.167938294974731090,-0.985797509167567480},{-0.170961888760301240,-0.985277642388941220},{-0.173983873387463710,-0.984748501801904210},{-0.177004220412148750,-0.984210092386929030},{-0.180022901405699400,-0.983662419211730250},{-0.183039887955140920,-0.983105487431216290},{-0.186055151663446490,-0.982539302287441240},{-0.189068664149806160,-0.981963869109555240},{-0.192080397049892270,-0.981379193313754560},{-0.195090322016128190,-0.980785280403230430},{-0.198098410717953620,-0.980182135968117430},{-0.201104634842091820,-0.979569765685440520},{-0.204108966092816900,-0.978948175319062200},{-0.207111376192218450,-0.978317370719627650},{-0.210111836880469610,-0.977677357824509930},{-0.213110319916091250,-0.977028142657754390},{-0.216106797076219490,-0.976369731330021140},{-0.219101240156869660,-0.975702130038528570},{-0.222093620973203480,-0.975025345066994120},{-0.225083911359792670,-0.974339382785575860},{-0.228072083170885680,-0.973644249650811980},{-0.231058108280671140,-0.972939952205560180},{-0.234041958583543320,-0.972226497078936380},{-0.237023605994367230,-0.971503890986251780},{-0.240003022448741390,-0.970772140728950350},{-0.242980179903263870,-0.970031253194543970},{-0.245955050335794480,-0.969281235356548530},{-0.248927605745720120,-0.968522094274417270},{-0.251897818154216800,-0.967753837093475510},{-0.254865659604514520,-0.966976471044852070},{-0.257831102162158820,-0.966190003445412620},{-0.260794117915275460,-0.965394441697689400},{-0.263754678974831400,-0.964589793289812760},{-0.266712757474898310,-0.963776065795439840},{-0.269668325572915090,-0.962953266873683880},{-0.272621355449948870,-0.962121404269041580},{-0.275571819310958140,-0.961280485811320640},{-0.278519689385052950,-0.960430519415565900},{-0.281464937925757940,-0.959571513081984520},{-0.284407537211271710,-0.958703474895871600},{-0.287347459544729460,-0.957826413027532910},{-0.290284677254462160,-0.956940335732208940},{-0.293219162694258570,-0.956045251349996520},{-0.296150888243623840,-0.955141168305770670},{-0.299079826308040360,-0.954228095109105670},{-0.302005949319228080,-0.953306040354193860},{-0.304929229735402260,-0.952375012719765880},{-0.307849640041534870,-0.951435020969008340},{-0.310767152749611360,-0.950486073949481810},{-0.313681740398891410,-0.949528180593036670},{-0.316593375556165730,-0.948561349915730380},{-0.319502030816015640,-0.947585591017741200},{-0.322407678801069850,-0.946600913083283530},{-0.325310292162262870,-0.945607325380521390},{-0.328209843579092550,-0.944604837261480260},{-0.331106305759876320,-0.943593458161960390},{-0.333999651442009380,-0.942573197601446870},{-0.336889853392219940,-0.941544065183020810},{-0.339776884406826850,-0.940506070593268300},{-0.342660717311994270,-0.939459223602189920},{-0.345541324963989040,-0.938403534063108170},{-0.348418680249434400,-0.937339011912574960},{-0.351292756085567040,-0.936265667170278260},{-0.354163525420490400,-0.935183509938947610},{-0.357030961233429920,-0.934092550404258980},{-0.359895036534988170,-0.932992798834738850},{-0.362755724367397110,-0.931884265581668150},{-0.365612997804773850,-0.930766961078983710},{-0.368466829953372210,-0.929640895843181330},{-0.371317193951837490,-0.928506080473215590},{-0.374164062971457880,-0.927362525650401110},{-0.377007410216418200,-0.926210242138311380},{-0.379847208924050990,-0.925049240782677700},{-0.382683432365089730,-0.923879532511286740},{-0.385516053843918900,-0.922701128333878520},{-0.388345046698826190,-0.921514039342042010},{-0.391170384302253870,-0.920318276709110590},{-0.393992040061047990,-0.919113851690057770},{-0.396809987416710310,-0.917900775621390500},{-0.399624199845646680,-0.916679059921042700},{-0.402434650859418430,-0.915448716088267830},{-0.405241314004989750,-0.914209755703530690},{-0.408044162864978630,-0.912962190428398210},{-0.410843171057903800,-0.911706032005429880},{-0.413638312238434500,-0.910441292258067250},{-0.416429560097636990,-0.909167983090522490},{-0.419216888363224070,-0.907886116487666150},{-0.422000270799799680,-0.906595704514915330},{-0.424779681209108690,-0.905296759318118820},{-0.427555093430281860,-0.903989293123443450},{-0.430326481340082720,-0.902673318237258710},{-0.433093818853151960,-0.901348847046022030},{-0.435857079922255360,-0.900015892016160280},{-0.438616238538527380,-0.898674465693953930},{-0.441371268731716730,-0.897324580705418320},{-0.444122144570429140,-0.895966249756185220},{-0.446868840162373990,-0.894599485631382810},{-0.449611329654606710,-0.893224301195515210},{-0.452349587233770890,-0.891840709392342720},{-0.455083587126343720,-0.890448723244757990},{-0.457813303598877010,-0.889048355854664680},{-0.460538710958240120,-0.887639620402853930},{-0.463259783551860150,-0.886222530148880640},{-0.465976495767966010,-0.884797098430937900},{-0.468688822035827680,-0.883363338665731690},{-0.471396736825997700,-0.881921264348355050},{-0.474100214650549910,-0.880470889052160870},{-0.476799230063321920,-0.879012226428633530},{-0.479493757660153120,-0.877545290207261240},{-0.482183772079122720,-0.876070094195406600},{-0.484869248000791010,-0.874586652278176220},{-0.487550160148435720,-0.873094978418290200},{-0.490226483288291210,-0.871595086655950980},{-0.492898192229783980,-0.870086991108711460},{-0.495565261825772370,-0.868570705971341010},{-0.498227666972781590,-0.867046245515692760},{-0.500885382611240830,-0.865513624090569090},{-0.503538383725717460,-0.863972856121586810},{-0.506186645345155120,-0.862423956111040610},{-0.508830142543107100,-0.860866938637767200},{-0.511468850437970410,-0.859301818357008470},{-0.514102744193221550,-0.857728610000272120},{-0.516731799017649650,-0.856147328375194580},{-0.519355990165589640,-0.854557988365400530},{-0.521975292937154280,-0.852960604930363740},{-0.524589682678468730,-0.851355193105265200},{-0.527199134781901060,-0.849741768000852660},{-0.529803624686294720,-0.848120344803297230},{-0.532403127877197900,-0.846490938774052130},{-0.534997619887097040,-0.844853565249707230},{-0.537587076295645620,-0.843208239641845330},{-0.540171472729892850,-0.841554977436898440},{-0.542750784864515780,-0.839893794195999630},{-0.545324988422046240,-0.838224705554838190},{-0.547894059173100190,-0.836547727223512010},{-0.550457972936604700,-0.834862874986380120},{-0.553016705580027360,-0.833170164701913300},{-0.555570233019601960,-0.831469612302545350},{-0.558118531220556100,-0.829761233794523050},{-0.560661576197335920,-0.828045045257755800},{-0.563199344013833870,-0.826321062845663650},{-0.565731810783613230,-0.824589302785025180},{-0.568258952670131490,-0.822849781375826320},{-0.570780745886967140,-0.821102514991104760},{-0.573297166698041980,-0.819347520076797120},{-0.575808191417845340,-0.817584813151583710},{-0.578313796411655480,-0.815814410806733780},{-0.580813958095764420,-0.814036329705948520},{-0.583308652937698400,-0.812250586585203880},{-0.585797857456438860,-0.810457198252594770},{-0.588281548222645220,-0.808656181588175090},{-0.590759701858874050,-0.806847553543799450},{-0.593232295039799910,-0.805031331142963550},{-0.595699304492433360,-0.803207531480644940},{-0.598160706996342160,-0.801376171723140240},{-0.600616479383868750,-0.799537269107905240},{-0.603066598540348280,-0.797690840943391040},{-0.605511041404325430,-0.795836904608883570},{-0.607949784967773520,-0.793975477554337280},{-0.610382806276309590,-0.792106577300212280},{-0.612810082429409710,-0.790230221437310030},{-0.615231590580626710,-0.788346427626606340},{-0.617647307937803760,-0.786455213599085880},{-0.620057211763289210,-0.784556597155575130},{-0.622461279374149970,-0.782650596166575730},{-0.624859488142386230,-0.780737228572094600},{-0.627251815495143860,-0.778816512381476090},{-0.629638238914927100,-0.776888465673232440},{-0.632018735939808950,-0.774953106594873930},{-0.634393284163645380,-0.773010453362737100},{-0.636761861236284310,-0.771060524261813710},{-0.639124444863775730,-0.769103337645579590},{-0.641481012808583050,-0.767138911935820400},{-0.643831542889791280,-0.765167265622459070},{-0.646176012983316390,-0.763188417263381160},{-0.648514401022112440,-0.761202385484261890},{-0.650846684996380760,-0.759209188978388070},{-0.653172842953776530,-0.757208846506484680},{-0.655492852999615460,-0.755201376896536440},{-0.657806693297078640,-0.753186799043612520},{-0.660114342067420370,-0.751165131909686590},{-0.662415777590171890,-0.749136394523459260},{-0.664710978203344900,-0.747100605980180130},{-0.666999922303637360,-0.745057785441466060},{-0.669282588346635900,-0.743007952135121830},{-0.671558954847018440,-0.740951125354958990},{-0.673829000378756040,-0.738887324460615220},{-0.676092703575315810,-0.736816568877370020},{-0.678350043129861250,-0.734738878095963720},{-0.680600997795453020,-0.732654271672412820},{-0.682845546385247970,-0.730562769227827590},{-0.685083667772700240,-0.728464390448225310},{-0.687315340891759160,-0.726359155084345900},{-0.689540544737066940,-0.724247082951466890},{-0.691759258364157640,-0.722128193929215460},{-0.693971460889653780,-0.720002507961381770},{-0.696177131491462990,-0.717870045055731710},{-0.698376249408972800,-0.715730825283818710},{-0.700568793943248220,-0.713584868780793750},{-0.702754744457225080,-0.711432195745216660},{-0.704934080375904880,-0.709272826438865580},{-0.707106781186547460,-0.707106781186547570},{-0.709272826438865470,-0.704934080375904990},{-0.711432195745216540,-0.702754744457225190},{-0.713584868780793520,-0.700568793943248340},{-0.715730825283818590,-0.698376249408972920},{-0.717870045055731600,-0.696177131491463100},{-0.720002507961381650,-0.693971460889653890},{-0.722128193929215230,-0.691759258364157860},{-0.724247082951466780,-0.689540544737067050},{-0.726359155084345790,-0.687315340891759270},{-0.728464390448225200,-0.685083667772700360},{-0.730562769227827480,-0.682845546385248080},{-0.732654271672412700,-0.680600997795453240},{-0.734738878095963610,-0.678350043129861470},{-0.736816568877369790,-0.676092703575315920},{-0.738887324460615110,-0.673829000378756150},{-0.740951125354958880,-0.671558954847018550},{-0.743007952135121720,-0.669282588346636010},{-0.745057785441465950,-0.666999922303637580},{-0.747100605980180020,-0.664710978203345020},{-0.749136394523459150,-0.662415777590172010},{-0.751165131909686370,-0.660114342067420480},{-0.753186799043612410,-0.657806693297078750},{-0.755201376896536440,-0.655492852999615570},{-0.757208846506484680,-0.653172842953776640},{-0.759209188978387960,-0.650846684996380990},{-0.761202385484261670,-0.648514401022112550},{-0.763188417263381160,-0.646176012983316620},{-0.765167265622458960,-0.643831542889791390},{-0.767138911935820290,-0.641481012808583160},{-0.769103337645579480,-0.639124444863775840},{-0.771060524261813600,-0.636761861236284420},{-0.773010453362736990,-0.634393284163645490},{-0.774953106594873820,-0.632018735939809060},{-0.776888465673232330,-0.629638238914927210},{-0.778816512381475980,-0.627251815495144080},{-0.780737228572094490,-0.624859488142386340},{-0.782650596166575620,-0.622461279374150080},{-0.784556597155575020,-0.620057211763289430},{-0.786455213599085770,-0.617647307937803870},{-0.788346427626606230,-0.615231590580626930},{-0.790230221437309920,-0.612810082429409820},{-0.792106577300212170,-0.610382806276309700},{-0.793975477554337170,-0.607949784967773630},{-0.795836904608883460,-0.605511041404325550},{-0.797690840943390930,-0.603066598540348390},{-0.799537269107905120,-0.600616479383868860},{-0.801376171723140240,-0.598160706996342380},{-0.803207531480644830,-0.595699304492433470},{-0.805031331142963440,-0.593232295039800020},{-0.806847553543799330,-0.590759701858874160},{-0.808656181588174980,-0.588281548222645330},{-0.810457198252594660,-0.585797857456438980},{-0.812250586585203770,-0.583308652937698510},{-0.814036329705948410,-0.580813958095764530},{-0.815814410806733780,-0.578313796411655700},{-0.817584813151583600,-0.575808191417845450},{-0.819347520076797010,-0.573297166698042090},{-0.821102514991104650,-0.570780745886967260},{-0.822849781375826210,-0.568258952670131710},{-0.824589302785025070,-0.565731810783613450},{-0.826321062845663530,-0.563199344013834090},{-0.828045045257755690,-0.560661576197336140},{-0.829761233794522930,-0.558118531220556320},{-0.831469612302545350,-0.555570233019602180},{-0.833170164701913190,-0.553016705580027580},{-0.834862874986380010,-0.550457972936604920},{-0.836547727223511890,-0.547894059173100410},{-0.838224705554838080,-0.545324988422046350},{-0.839893794195999520,-0.542750784864515890},{-0.841554977436898330,-0.540171472729892970},{-0.843208239641845330,-0.537587076295645730},{-0.844853565249707120,-0.534997619887097150},{-0.846490938774052020,-0.532403127877198010},{-0.848120344803297120,-0.529803624686294830},{-0.849741768000852550,-0.527199134781901280},{-0.851355193105265200,-0.524589682678468950},{-0.852960604930363630,-0.521975292937154500},{-0.854557988365400420,-0.519355990165589750},{-0.856147328375194470,-0.516731799017649870},{-0.857728610000272010,-0.514102744193221770},{-0.859301818357008360,-0.511468850437970520},{-0.860866938637767200,-0.508830142543107320},{-0.862423956111040500,-0.506186645345155230},{-0.863972856121586700,-0.503538383725717690},{-0.865513624090568980,-0.500885382611240940},{-0.867046245515692650,-0.498227666972781760},{-0.868570705971340900,-0.495565261825772540},{-0.870086991108711350,-0.492898192229784150},{-0.871595086655950870,-0.490226483288291380},{-0.873094978418290090,-0.487550160148435880},{-0.874586652278176110,-0.484869248000791120},{-0.876070094195406490,-0.482183772079122890},{-0.877545290207261130,-0.479493757660153290},{-0.879012226428633530,-0.476799230063322090},{-0.880470889052160750,-0.474100214650550080},{-0.881921264348354940,-0.471396736825997860},{-0.883363338665731690,-0.468688822035827850},{-0.884797098430937790,-0.465976495767966180},{-0.886222530148880530,-0.463259783551860320},{-0.887639620402853820,-0.460538710958240230},{-0.889048355854664570,-0.457813303598877170},{-0.890448723244757880,-0.455083587126343890},{-0.891840709392342610,-0.452349587233771060},{-0.893224301195515210,-0.449611329654606870},{-0.894599485631382700,-0.446868840162374160},{-0.895966249756185110,-0.444122144570429310},{-0.897324580705418210,-0.441371268731716890},{-0.898674465693953930,-0.438616238538527550},{-0.900015892016160170,-0.435857079922255530},{-0.901348847046021920,-0.433093818853152070},{-0.902673318237258710,-0.430326481340082890},{-0.903989293123443340,-0.427555093430282030},{-0.905296759318118700,-0.424779681209108920},{-0.906595704514915330,-0.422000270799799850},{-0.907886116487666040,-0.419216888363224240},{-0.909167983090522380,-0.416429560097637150},{-0.910441292258067140,-0.413638312238434670},{-0.911706032005429770,-0.410843171057904130},{-0.912962190428398210,-0.408044162864978580},{-0.914209755703530690,-0.405241314004989920},{-0.915448716088267720,-0.402434650859418600},{-0.916679059921042590,-0.399624199845647070},{-0.917900775621390500,-0.396809987416710250},{-0.919113851690057770,-0.393992040061048150},{-0.920318276709110480,-0.391170384302254040},{-0.921514039342041790,-0.388345046698826580},{-0.922701128333878630,-0.385516053843918850},{-0.923879532511286740,-0.382683432365089890},{-0.925049240782677470,-0.379847208924051380},{-0.926210242138311380,-0.377007410216418150},{-0.927362525650401110,-0.374164062971458040},{-0.928506080473215480,-0.371317193951837710},{-0.929640895843181210,-0.368466829953372600},{-0.930766961078983710,-0.365612997804773800},{-0.931884265581668040,-0.362755724367397280},{-0.932992798834738850,-0.359895036534988330},{-0.934092550404258760,-0.357030961233430310},{-0.935183509938947610,-0.354163525420490400},{-0.936265667170278260,-0.351292756085567200},{-0.937339011912574850,-0.348418680249434790},{-0.938403534063108170,-0.345541324963988980},{-0.939459223602189920,-0.342660717311994430},{-0.940506070593268300,-0.339776884406827020},{-0.941544065183020700,-0.336889853392220330},{-0.942573197601446870,-0.333999651442009380},{-0.943593458161960390,-0.331106305759876480},{-0.944604837261480150,-0.328209843579092720},{-0.945607325380521170,-0.325310292162263260},{-0.946600913083283530,-0.322407678801069850},{-0.947585591017741090,-0.319502030816015800},{-0.948561349915730270,-0.316593375556166070},{-0.949528180593036670,-0.313681740398891410},{-0.950486073949481700,-0.310767152749611530},{-0.951435020969008340,-0.307849640041535030},{-0.952375012719765770,-0.304929229735402650},{-0.953306040354193860,-0.302005949319228030},{-0.954228095109105560,-0.299079826308040530},{-0.955141168305770670,-0.296150888243624010},{-0.956045251349996410,-0.293219162694258960},{-0.956940335732208820,-0.290284677254462390},{-0.957826413027532910,-0.287347459544729620},{-0.958703474895871490,-0.284407537211272100},{-0.959571513081984520,-0.281464937925757890},{-0.960430519415565790,-0.278519689385053170},{-0.961280485811320640,-0.275571819310958310},{-0.962121404269041470,-0.272621355449949250},{-0.962953266873683880,-0.269668325572915090},{-0.963776065795439840,-0.266712757474898480},{-0.964589793289812650,-0.263754678974831570},{-0.965394441697689290,-0.260794117915275850},{-0.966190003445412500,-0.257831102162158990},{-0.966976471044852070,-0.254865659604514680},{-0.967753837093475400,-0.251897818154217190},{-0.968522094274417380,-0.248927605745720090},{-0.969281235356548530,-0.245955050335794650},{-0.970031253194543970,-0.242980179903264070},{-0.970772140728950240,-0.240003022448741780},{-0.971503890986251780,-0.237023605994367170},{-0.972226497078936270,-0.234041958583543510},{-0.972939952205560070,-0.231058108280671330},{-0.973644249650811870,-0.228072083170886060},{-0.974339382785575860,-0.225083911359792830},{-0.975025345066994120,-0.222093620973203680},{-0.975702130038528460,-0.219101240156870050},{-0.976369731330021140,-0.216106797076219440},{-0.977028142657754280,-0.213110319916091420},{-0.977677357824509930,-0.210111836880469800},{-0.978317370719627540,-0.207111376192218840},{-0.978948175319062200,-0.204108966092816840},{-0.979569765685440520,-0.201104634842092010},{-0.980182135968117320,-0.198098410717953810},{-0.980785280403230430,-0.195090322016128610},{-0.981379193313754560,-0.192080397049892470},{-0.981963869109555240,-0.189068664149806360},{-0.982539302287441240,-0.186055151663446910},{-0.983105487431216400,-0.183039887955140900},{-0.983662419211730250,-0.180022901405699570},{-0.984210092386929030,-0.177004220412148940},{-0.984748501801904210,-0.173983873387464130},{-0.985277642388941220,-0.170961888760301220},{-0.985797509167567370,-0.167938294974731280},{-0.986308097244598560,-0.164913120489970140},{-0.986809401814185530,-0.161886393780111740},{-0.987301418157858320,-0.158858143333861470},{-0.987784141644572180,-0.155828397654265370},{-0.988257567730749460,-0.152797185258443690},{-0.988721691960323780,-0.149764534677321450},{-0.989176509964781010,-0.146730474455361800},{-0.989622017463200780,-0.143695033150294640},{-0.990058210262297010,-0.140658239332849540},{-0.990485084256457090,-0.137620121586486040},{-0.990902635427780010,-0.134580708507126280},{-0.991310859846115330,-0.131540028702883340},{-0.991709753669099530,-0.128498110793793090},{-0.992099313142191800,-0.125454983411546260},{-0.992479534598709970,-0.122410675199216350},{-0.992850414459865100,-0.119365214810991630},{-0.993211949234794500,-0.116318630911904710},{-0.993564135520595300,-0.113270952177564420},{-0.993906970002356060,-0.110222207293883240},{-0.994240449453187900,-0.107172424956809160},{-0.994564570734255420,-0.104121633872054570},{-0.994879330794805620,-0.101069862754827930},{-0.995184726672196820,-0.098017140329560826},{-0.995480755491926940,-0.094963495329638908},{-0.995767414467659820,-0.091908956497132752},{-0.996044700901251970,-0.088853552582524753},{-0.996312612182778000,-0.085797312344440158},{-0.996571145790554840,-0.082740264549375636},{-0.996820299291165670,-0.079682437971430195},{-0.997060070339482960,-0.076623861392031686},{-0.997290456678690210,-0.073564563599667732},{-0.997511456140303450,-0.070504573389613856},{-0.997723066644191640,-0.067443919563664176},{-0.997925286198596000,-0.064382630929857701},{-0.998118112900149180,-0.061320736302208488},{-0.998301544933892890,-0.058258264500435794},{-0.998475580573294770,-0.055195244349690094},{-0.998640218180265160,-0.052131704680283594},{-0.998795456205172410,-0.049067674327417966},{-0.998941293186856870,-0.046003182130914706},{-0.999077727752645360,-0.042938256934941021},{-0.999204758618363890,-0.039872927587740130},{-0.999322384588349540,-0.036807222941358832},{-0.999430604555461730,-0.033741171851377705},{-0.999529417501093140,-0.030674803176636865},{-0.999618822495178640,-0.027608145778965660},{-0.999698818696204250,-0.024541228522912326},{-0.999769405351215280,-0.021474080275469667},{-0.999830581795823400,-0.018406729905805101},{-0.999882347454212560,-0.015339206284988060},{-0.999924701839144500,-0.012271538285720007},{-0.999957644551963900,-0.009203754782060021},{-0.999981175282601110,-0.006135884649154799},{-0.999995293809576190,-0.003067956762965977}};

